{{-1.2207030475144487, -0.5943536095430441, 0.9639653917196852, 0.9545473329724424}, {-1.336835775143103, 1.2817396813131832, 1.5177075008398877, 0.33065670991662627}, {0.6756309140621519, 0.48190063800971955, 0.13334446281095919, 0.15414965048756468}, {-0.873781043976055, 2.4537715537685183, 1.0299351205761558, 0.13595061317773446}}
{{0.27431918748169565, -1.0280196193448212, 1.993619575302288, -0.9608708314268689}, {0.39042385463852114, -0.6999538944894922, -1.1433160652116945, -0.9212692700970354}, {1.7262851664762089, -1.8088821685012686, -1.8902326890321417, -1.8582849248301712}, {0.7129025140069865, -0.743569065034164, 2.0844875415008777, -1.9847529646609254}, {0.3826615300057881, 1.3381291934006376, 1.463006598436805, -0.09098859167276403}, {-1.0608878452837827, -1.0390896596577166, 0.565346808027856, -0.9417056380916683}, {1.365476246147925, -0.8295398053261559, -0.08180359488104813, 0.23309113692667244}, {0.3033031763569621, 0.4023713919537518, -1.9295192377036696, 0.40750330709264104}, {-0.06661497595774636, -2.229614183728812, -1.1868067706818428, 0.37151422759862096}, {-0.6149967674122544, -1.3334044520143202, 1.8976138470743549, 2.2275718762207903}}
{{-1.0812902744221893, 1.67655333439655, -0.15056479588985994, 2.0381712627557995, -1.260966231538148, 1.5709043562780307, -0.856508353771517, 1.003556361177362, -0.3286696229540732, -0.5711331097079749}, {-0.9196710130669032, -2.289261546133405, 0.3338714974966979, -2.5469267012641, 0.636778816293296, 0.8179346638494244, 0.9823366018568687, 1.0570528925843103, 1.534128292675837, -1.6192200453341707}, {-0.6120332828620981, 0.06905303633470225, -1.845659454809406, 0.81855475342666, 1.1825365191760195, -1.3663707008773631, -0.9208943954158068, 0.3958603207758078, -0.6391998326920176, 2.6785459342570808}, {-0.38741092739924793, 0.2613174640012595, -1.1147466969701976, 0.4728898368299199, 0.11573120357738485, 1.4279042917712805, 1.2525760367232568, -1.853865852761581, -0.16701617979378777, 1.4333300415785202}, {-1.6501311056411434, -1.2116777338956266, -0.3077570570436468, 0.14345496212321332, -1.7833137934050751, -1.1686777250233171, 0.8281313907411674, 1.1416037291975314, 0.6949580070488119, 0.49682425298949595}, {-0.6231553006950218, -0.019812142585883753, 2.633120518685627, 0.20034977800089426, 0.7084974511121922, 1.0802003650818817, 2.7193053899783295, -1.4762421448179566, 0.28868054589429004, -0.3252317364896998}, {2.0347518496574093, -1.0920518801889147, 1.6447340389361573, 0.8777483347108065, -0.9465575517866701, -1.3371180529157847, 1.4557816685363714, 0.8548452984420002, 1.4890620897954956, -1.0778014163832366}, {0.8251657682193695, -2.6390062403978676, -1.2453630713986514, 2.454487142809087, 0.6498012838390701, -1.8450087719320156, -0.9030215804346206, -1.8519294565585582, -0.993214907647088, -0.5864510746657878}, {2.1382674372245765, -0.6727962145940538, -1.5959223566468492, 1.5617827700013802, 0.132331782508895, 2.110542428025991, 1.4689835538572416, 1.7468923876481774, 1.5782247630571005, -2.3220340755699134}, {-0.2315753642768822, 1.6840042727760922, -0.35582741824661585, -0.1716294771798385, 1.9310409731986258, -1.0334591866655398, 2.0504389309619007, 0.5928767777439953, 0.8336584644192111, 0.2428577705806423}}
{{0.17321289807857876, -0.20439286098461815, -1.9073351314416351, 2.049741688469481, -0.46677914607533194, -0.03597366505970408, -2.3588723031304006, 0.272981637157246, -0.9903357698297874, 1.5663400476949394}, {-1.0454481236726552, -0.41598333525192804, 1.0050445239782642, 0.36190852650865807, 0.39688600299959276, -0.5770570748854551, 1.5839353225394168, -1.9848984837300343, -2.3120258616724123, 0.41066364219938756}, {1.1632214674777774, 1.1027920200334616, 0.5738082484797301, -1.1845217653160431, 0.8603459699721026, -1.7796893292203015, -0.7996424373255964, 0.13505115134053236, 1.3072168552675503, 1.5111299991488554}, {-1.4698013829096088, -1.7095245806250718, -1.3449134493044959, 0.6919288455411052, -0.5645432576901588, 0.7777107332653191, -0.999544755551841, -0.9082265167415073, -0.13237344111356136, 2.3275911586864444}, {1.1514675829349432, 1.087111763954089, 2.5751273393683554, -1.535620130392274, 1.9709620316414784, 0.4026497300088377, 1.3924942204393098, -0.776810698495555, 2.5450789511612797, 2.1232255286435344}, {-2.5405428766682343, -0.7454211746057827, 1.8390773508462614, -0.11896004979910438, 0.49246895251087186, 1.142878004417628, 1.0058563373330893, -0.2092547904191512, 2.814254390700406, -0.8873527745299064}, {0.5541700908631496, 0.9421477515085018, -0.36617844187819093, -0.5306626267601469, -2.329689055961112, 1.9576717930330978, -1.6574395946143325, -0.8733500526939737, -2.5832163126457455, -0.11305595047211316}, {-1.698396085960826, -0.2747261729238744, 1.1859155082534762, 0.45420253540896793, 1.2136401015555243, -1.506037895675971, 0.5686059866007387, -0.9386470457214701, 1.1179026302488344, -1.1739525389242245}, {-0.6018005549613558, 1.0653335850689098, 0.07490681085067459, -1.395552771557984, 1.4000259238783386, -1.3148729650388433, -2.7562367424546577, 2.2412718341718945, 2.222034105416971, -0.4981639521265702}, {-0.49795228199893715, -0.43744447457048313, 0.11732947427690216, -1.264953054051206, 2.279105988021211, -1.7395875652900008, 2.181790964765881, -0.03000501563441991, -2.7047768314389122, 1.9476318990147634}}
{{-0.8878073537128185, 0.4583822652033757, 0.6038569174010442, -0.8888891800064453, 1.8798369399769488, 2.2760059722293082, -1.0815131231823545, -0.019260035960826188, -0.5520259243644619, 0.27776814604060845}}
