{{0.7594881423782717, 0.9183940375609709, 1.0964671260693586, 1.2595316037884476}, {2.328448766742369, 0.42176990395822717, -0.43033837261618485, -1.24902027603057}, {0.743454098999383, -1.2481159616958288, -0.8956170583679282, -1.0389176778147555}, {1.4564957391741242, 0.5253237788003322, 1.0644021388754765, 0.5333551230479519}}
{{0.7194140767816884, -1.4758776593070058, -0.6563188241465657, 1.1855037640514459}, {1.718508380030538, -1.9822457217814096, 0.504629872585619, 0.5243630126111902}, {2.0684472577051003, -0.10847232438532409, 0.9902460227487923, -0.2934523421461399}, {-1.4555612605438055, -0.20653910573494705, 0.2514866004931678, -0.9453584034624417}, {-2.01363533645254, -0.6708216375008874, 1.255149050568899, -0.8472592675982651}, {-0.2117714348884468, -1.4652173559964417, -0.5687684207978654, -1.7680405848600893}, {1.7284300233811916, -0.11763985109026946, 0.7850544577044557, 0.5286563535127611}, {-0.1749702097838578, 1.3947260033032916, -0.4454007677522303, 1.513603084780272}, {1.19825925927549, -0.2525594774545009, 1.0831434357136154, 1.0468484287700848}, {1.210176360844971, 0.30187592104957195, -2.20323189799924, 1.1575725751450208}}
{{-0.006089872361712037, 1.4831050975914193, 2.0396987629600183, -0.3282072555290544, -0.0264475370761285, -2.297850305268364, -1.49211894766313, 1.982747747736511, -0.7433432401794268, -0.2917588903983147}, {0.5948441440895027, -0.2496045348998114, -0.8913891873102703, 0.33381365235582555, -0.41676943805502004, 0.7879401042234321, 0.11947284787882316, 0.9296731766270566, 1.951230669037611, 1.1956996615285151}, {-1.0202866544383937, -0.7718288492498516, -0.6945634532671944, -1.2025820034853776, 0.8662445421188605, 1.252906144311409, 0.3348838302463513, -0.25288935349781366, -0.44809895023174356, -0.7453962331753385}, {1.310965345362087, -0.3689679335279018, 0.06392122427245256, -2.285155268359547, 1.4008280666534862, 1.3012428442058228, 1.3575880904033581, 0.4310875209185601, 2.6574682080799814, -0.8706936603992496}, {1.1800890628006748, -0.8176097277779094, 1.1195688511135553, -0.4983979863328796, -0.8650290937606046, 0.5496193278659414, -0.5429211406651185, -0.8870259365061478, -0.9167264147390548, 0.2325840386792692}, {1.684810469716018, 0.3289882204696561, -2.030252045569898, 0.34261821412773225, -1.9272799230648368, -2.08877914560429, 0.3203514216019798, 0.4689996700079156, 0.3776439256968888, 0.6219141449279172}, {0.4096541071275809, 1.1312507906365965, 0.469752567858643, 0.6230183958325047, 1.024325333054514, -1.447720559019554, 0.43343351872622, 2.657446258085957, -1.1067832037389427, -1.0738042962240948}, {0.3141553026582202, -0.9021457327778988, -0.5230730258981298, 2.532384614568517, 2.046853345850271, -0.6033466683201154, 0.3173777993252714, 0.3896138060871578, 2.151360929129296, -1.373458774205982}, {-0.06788367050480827, -0.9974124773542138, -2.356303704775604, 0.2307658216901713, 0.3324403461662367, -2.181433575033048, -1.2494100323188349, 2.0172049730104753, 1.6532016115514665, 1.296930450536283}, {-1.3824106989161822, 0.8085902840227526, 0.06211094601021366, -1.101882440808247, -0.6675360498265814, 1.0480812043640577, 1.1436532969500977, 1.0914664064834303, 1.328322834846011, -0.4822626192046717}}
{{-0.15534088005688512, 0.0411503645126885, -0.9302204122619823, -1.0884211848545278, 1.281750072109856, 0.10082533025934018, -2.48546255740957, 0.05078516011079629, -0.5730669131001705, 1.1199408174250638}, {1.034851312754912, 0.6582484368303935, 1.8354193735413191, 0.6075218583768742, -1.3186390821604534, 0.14558792686929192, -0.7371624965952972, 1.8648655898940065, 0.706182535436657, -0.6250014220098978}, {-1.5361324267029837, 1.2171051500297418, 1.589841986637365, 0.27554689161088186, 0.11527861374578281, 0.4577134138665149, -0.5331116674478472, 2.152127916301756, 1.0949010654139628, -1.62727953764814}, {0.9338498579066055, 0.10968032624928045, -0.21010537553447828, 0.6947783853619988, 0.6923555738331577, 1.7756612013948965, 1.0555119911518527, 0.14160388306409114, -0.8114438938463874, -0.9205077515266716}, {-0.5651524419631319, -1.5239162158071342, -0.22562096582421654, 2.574561469883657, -1.6023610957704018, -1.9481907223270916, 0.3326831893630766, -0.5311298652753824, -0.02791171971704685, 0.0037732821750846714}, {1.6507035332936375, 0.07079364580031954, 2.1381980729092307, -1.3135499633212626, -0.6445711447138437, 0.7075480670740761, -0.67942891987491, -1.599099930825484, -0.5043706043611064, 0.9877854131883727}, {0.8281897639081234, -0.9066081116884216, -1.4773552849877478, 2.138625318322036, -0.9924161094762199, 1.9434697818102498, -0.31807952027569536, 1.65740477226837, 0.19048524112798002, -0.9462982198082789}, {-0.9018383434700314, -0.07164090401464285, 0.2065092384787735, -0.11056421108101198, 0.06282519680091475, -0.611809366239736, -0.31406263690940867, -0.7091936235436189, -0.2215352465560157, -0.4937264480598084}, {-1.2110148384746193, 1.0789495696732718, 1.0722018306694587, -1.4467599865285714, -1.465718453951215, -0.7022763325301438, 0.7618894694007909, 1.3897920748358565, -0.8817259312719024, 1.12046514198907}, {1.2005926146414656, -0.07089052115708143, -0.3294114104754121, -1.9360596947264088, -0.6631976316875211, 1.794346680590004, 0.16448529751499416, 0.3343721888702443, 2.0344290571564736, -2.0047824334454267}}
{{0.47797654213243507, 0.2611150888768379, 0.9100458487674186, 1.596034482434678, -0.6354776701277488, -0.6227453440418651, 0.39635600368277046, -1.3505459864596092, -0.03232206742286088, -1.92712142741911}}
