{{-1.5373604139425483, -0.7524147460947376, 1.0589510284528285, -1.6610535103139}, {-0.8056425185236121, -0.4553176206846478, 0.09704418643249313, 0.38597132101126486}}
{{-0.5921951773076266, -0.6799214690735174}, {-1.3778702058945216, 2.2371433168455597}, {-0.669144836690808, 0.98175688067575}, {-0.6467876474460978, -0.8200240754183623}, {1.5886564359445627, 0.34712277498461386}, {0.029238494947634266, 1.165616369670019}, {0.6154701495255441, 0.9896828111050253}, {-1.5655405318583602, 0.06970253940333698}, {0.7216170249426268, 0.6868534851607506}, {1.4349703009544639, -0.3235084721251964}}
{{-0.4409986538948546, -0.2785123903009393, -0.5766753914010565, -1.9077324362214876, -0.24123189024489416, -0.07588293664372532, 1.2115411125926496, 1.654282104927748, 1.1130682477060787, 0.3344671534284702}, {1.2125572313632813, 0.40904228357471195, 1.1583689612053492, -0.350304473166937, 1.4441426997041522, -1.145649893728777, -1.625765513669264, 0.17951966820763332, 0.6146666248669561, 0.7533937312181412}, {-0.8126282730668645, -0.557289498736952, 0.9766670155390073, 1.039697527257884, 2.216642569980077, -1.3486544903221431, -1.5992283344690246, -1.5533944124791152, -1.22940025094385, -2.1235572426810543}, {-1.345225756672445, 1.2264139576107012, -1.1902841205307475, -1.148173406985265, -1.8794088843019177, 0.544363342758708, 0.2374912352675667, -0.6551391038913842, 0.6409090679718279, -0.7802345913147208}, {2.061160011554544, -1.4496450506099992, 2.0201406930162285, -1.7139548634145394, 1.1104969369097355, 1.4071290848278988, 1.9253359734175666, 2.0582822603252926, 1.5472956044825552, 0.38500343981285856}, {-1.7858853533055687, -1.6946187558077765, -0.20873534696790141, 0.6502938222856689, -0.18494811399588115, 1.0268444777827874, -0.7420686249788071, -0.33746729415149684, 0.30906955037162276, -0.28483503998955156}, {1.7834749332425543, 0.8264179932729079, -1.1643536451403138, 0.4059041857181828, 0.9343078886062208, -0.7762672063927504, -1.5261613368645666, 0.4694042640223415, -1.1506811125949468, -0.46560142537158505}, {0.9280244310894079, -1.2804887783894197, -0.6518646494020076, 0.528715309342465, -0.5793430748047965, 0.5340549307651054, -1.6150929509618457, -1.1686454083935471, -0.45526722245811246, -0.5166895770159131}, {-0.03196947089989384, -1.6895457758926837, 0.14893567837331767, -0.09905070869078277, 1.6648807969232786, 2.36548262509808, -0.9652836882654832, -1.0098860408111707, 2.1071137792231536, 0.7614322699234728}, {-0.8105690819166776, -0.5179114809861897, 1.2480757013589998, -0.2807431617429817, -1.8119545157792656, -2.066436816523985, -0.09127546623530333, 0.745663748261344, -0.5301901356977818, -0.9675626775102537}}
{{0.8219115737500255, 0.04714707025680118, -0.7941904859570164, 0.8378020411166232, 0.02311536781856591, -1.5138381825554827, -0.5845751470962972, -0.4692733131829657, 0.7898195107064023, -0.39175812206996463}, {-0.10330466359676, -0.938544467828808, -1.6223523179811212, 1.6194234680508126, -2.206023495544448, -1.4692139212211526, 2.155205113393404, 0.5416569352854594, 0.4579123807950056, -1.879900013137127}, {-1.0896454613182602, -1.7569430298796043, -0.3047744951654556, -1.6523729595005123, 1.1705775893646173, -0.8062129993361771, -2.06540377372317, -1.473304113700305, -1.6291725058773023, -0.12599540315967864}, {-1.022717527690695, -0.37139210502530834, -1.6073717080120122, -1.5428319259199879, 1.8265962675803908, 0.2715263663272782, 2.296793104210974, 0.8914595991184047, 0.6690911220022895, 0.5576711124223074}, {1.7019239402836255, -0.4691853049478434, 0.3872461613657512, -1.773079415157112, 1.407921422621925, -0.8819537232936436, -1.4282505210563525, 2.2484877020869, -1.578680474699995, -1.8071383974429227}, {-1.1722993433202682, -0.236373540263507, 0.698234969455821, -0.8154924474614518, 1.5790786109135435, -1.62075811459666, 0.7058183122932219, 1.7874570244570567, -0.6871739319867325, 1.8928309899164635}, {1.2675713974996106, 1.9345625455398747, 0.15888633968745403, 1.585979126341087, 1.4186072706085782, -0.6844339991057931, 0.16101169878518623, -0.475899978146577, 1.0189552595811402, 1.8121155087915404}, {-0.1050166694437582, -0.7935265114351222, -1.3337585574775255, -0.8235283828898988, -0.8553051471863318, -0.6781639160335441, -0.9625149463649775, -0.6913005227840011, 0.9653050341454052, -1.8665941277304374}, {-1.937959630926945, 0.30783591112805103, 0.5614741233958573, 0.4328713774604256, -0.9435792746112075, 1.3942145284711436, 1.601915850272837, 1.818081023216619, 0.8681684685312429, 1.3466392910612017}, {1.013760815292276, -1.3980077333941956, -1.096307951319925, 0.08893845532849655, 0.34360149890657243, -0.8560651388220383, -1.4455079149204224, -1.1720142419124073, 1.4676851827396706, -1.929663329443824}}
{{0.14533148223824327, -1.113703552646787, -0.9063119166978337, 0.35168358750797446, -1.728824658425804, 1.569354063725598, -1.9440994382108228, 0.8003749515275209, 0.2605836453954797, 0.518703909592758}, {1.46823428856056, 0.6099183660050832, -0.48304781228733384, 0.5280855196143851, -0.03464465219405701, -1.3411557089591863, -1.0258451278958043, -1.2117912854775228, 0.9209739794193887, -0.7153720877263499}, {0.8255653790975583, -1.8714289160438224, -1.0340273219413127, 0.832636638651121, -1.9983454750777634, 0.11651213787238282, -2.23450736654289, 1.8102804415570324, -2.109436777109366, 0.5456993943060289}, {-0.9442552527095937, -0.6974127652573255, 1.741052833430346, -1.8640990014929812, 0.39798258498236905, 0.9017424881855336, 0.13886177643682351, -0.3917277246093236, -1.0819272416224464, -0.7929414918646946}, {0.213669895744208, -0.4931520360670294, -1.180179104934864, -0.9126634203730737, 0.5980914017724286, 0.2687211014871863, 0.8291102853404377, -0.13638814294451324, 0.4546716564902583, -1.468477139214825}, {-0.3120936087884269, -1.7502156563684852, 1.416433993495956, 0.21381323882859612, 1.501880063779348, -1.3008098335310527, 0.5488923088448421, -0.6062174243382091, 0.6476055595049566, 1.611282330444776}, {1.4051913798918974, 1.856126957474217, 0.03574613992535685, 0.4391278505477988, -1.6645071706947436, -2.2439684836627727, -1.4514129178565334, 0.3779463276803907, 1.7057849500658409, -0.3017854251603629}, {-0.6616255022653924, -0.32953390440793406, -1.6204544347328924, 1.2134232353508594, 1.13463810889109, 0.9504495480648747, -1.474197311504917, 1.8269821144614633, -0.728243870650486, -1.2528956040042531}, {-0.5020191905808381, -0.6076888974560076, 0.47025656237231267, 0.730623728740012, 0.6072336334797642, -1.9486876762580403, -0.44165605171471595, 0.6217618677107903, -1.52673862949033, -0.9658091651546157}, {0.010441219254356362, 0.5453663775661236, -0.16445709738384057, -1.28635649155681, -1.500859623460228, -0.06815875510447321, 2.160522420446984, 1.4069569354078246, -0.22095172215252346, -1.3952958714664796}}
{{-1.7819108862808961, 0.33185496853869734, 1.2457586276824824, 1.5301713026103216, -0.4920393212219571, -2.0133024669759556, 0.8486856195772843, -1.2039759259279514, 1.292877327903617, 1.8606774130626111}}
