{{1.3621720250473919, 1.2255916972595364, -0.6842433247763335, -0.6100416507160704}, {-0.12171641456950852, 1.3263492202365152, 1.1727201998002186, -1.6238192176268904}, {-0.04961497713362341, 0.02907783385261549, 0.3203137194505604, -0.8149148386223888}, {0.07145327781106967, -1.258636172221005, 1.0979066295796236, 1.2402989025184454}}
{{-1.2538284530119044, 0.6530332522593594, -1.0276962178469975, 1.347579846294916}, {-0.5785630539840774, 1.8597507372401134, -0.0013509867568307276, -1.804041881381294}, {1.4439967190234277, -1.056380213974605, -1.5980973182956415, -0.284152403008349}, {-1.1916668466074478, 0.7251816027510405, 0.8546758197216655, 0.7938528658064608}, {1.6699140969826312, 0.45298769906223957, 0.044980957205584246, 1.7888236949080878}, {0.8555301067146484, 0.8547953100572454, -0.9447172914185991, -0.8919708594886355}, {-1.57202359539371, 0.41282748999494423, -0.7750335737616938, 1.1448152162226637}, {-0.11961771682029296, 1.221405937141915, 1.342783394324043, -0.8970473830749301}, {0.37769675973177275, -0.8722158916800149, -0.847927344482428, 0.88055476558127}, {-0.5354407603872684, 1.4640246248906585, -1.1084040948606457, 0.38141632861034647}}
{{-0.1649175725520371, -0.3064765178020079, -0.5197655981136449, -1.705141274599964, 0.05264999148152333, 1.4201518852779467, -0.05437343035124666, -1.5510444390642157, -1.9799152571620735, 0.7261252157516145}, {-0.9015855848013314, -0.5420967232960037, 0.2993708635199599, -1.1507933673520117, 1.5705441403444484, -0.5865332694252587, -1.1009259476039666, 1.174420295820212, 0.9575321013103693, -0.24486033333939322}, {-0.4285965003656629, -1.6450410540838503, -1.174170037861221, 0.33294096897557135, 0.9876085039165405, -0.2525593958544256, 0.8504474824899511, -0.5491769475936603, -0.8548463587732023, 0.9526639000338908}, {-1.0509473619470908, 0.36659700353370683, -1.1019045124366582, -2.093244477119171, -0.7294787301234258, -0.12944210533235673, 0.2140910622540429, 0.6955790501287762, -0.9205881287020963, 0.825265967343189}, {0.0034121768859148027, 1.2503076130310076, 1.1403521362129032, 1.3214905879876784, -0.643812134246875, 0.9609232056265373, -0.8928951345702665, -1.71351935305997, -0.9626836297944299, -1.1696970470341665}, {-0.8234953751707401, 0.6115002977970683, -0.27123497406060715, -0.9851342740542881, -1.2628374768488526, -0.28187659448659586, 2.34658259750183, 0.49954881945849583, 1.1334159979534206, -0.05970198856313215}, {-0.38773452706274103, 1.4133662111707928, -0.4524993764378791, -0.8384900348749693, -0.24175968555209826, -0.8279623391838693, 1.836409202255601, -0.9738671077355803, 0.1743165221333539, -0.0778054951004161}, {-1.0177295416440322, 0.24845917601490897, 0.8912993770708926, 0.8587550154014956, -1.4224344799438948, 1.095531723921364, -0.6019472364370415, -1.3908926331694342, 0.8693165269432381, -0.09113791060285745}, {-0.36439265635460627, 0.108629033280853, -0.6479710840533544, -2.377222269076805, 0.3324859881700022, 0.965284465762021, 1.3911904231560182, 0.12507139631984093, -0.25581363904867827, 1.2535202790232614}, {1.2574033385929573, 0.8155683305425983, -0.45541528465131775, -0.2135503171773892, -0.6851817151158108, -0.3747914912921918, 1.526736228371881, -0.4882354481860003, 0.4693897802696133, 0.1471673423518408}}
{{1.8632738713066006, -0.41141180086679696, -0.6265594303002437, -0.9531755382443221, 1.4976332744165166, 0.6966436828701748, 0.028625919074311196, 0.9843035999699015, 0.015821854356836827, -0.38250074353157404}, {-1.0030470871261001, 1.2961850346713115, -0.27945275059764263, 1.6984370462299023, -0.24360838023302056, -1.9644433891905666, -0.6825327563950563, 0.20377041069165075, -1.287090011386245, 1.5781271371610335}, {1.1413264041221254, 0.12903863062238208, -1.3882054644539958, -0.5835443990625446, -0.9452321673919546, 1.240360334015279, 0.0384356817399798, -1.665901414676477, -1.441758417318697, 0.9870034561271417}, {-0.8329538765451439, -1.174066944594439, 0.9693157943258388, -0.6230058755892269, 0.973977767340598, 1.2874839745693696, 1.1436811531204323, 1.2021668429510863, 0.16839607791211741, 0.7839323468996962}, {0.8330156939135644, 1.5368286614669167, 1.8448699505442532, 1.865266863815867, 0.6857773586832698, -0.32521963493391304, 1.3369958725744784, 0.5132106706123689, -0.9382490399713159, 0.5522740678796505}, {2.3740285786297397, 1.2515854559071933, -1.142850263041574, -0.23594793058290497, -1.7119261676639232, 1.528039806931878, 0.8115425955624649, 0.9803990325862326, 0.1617684670854595, 0.4931672883071977}, {-0.34806087512320605, 0.14307184957897945, -0.27034304149080657, -0.29297745348368465, -0.5417259147874536, 0.4770427734274255, 1.8972286164997958, 0.26014942854935874, 0.03346539222679998, 0.8558778798516318}, {-0.962243326983367, 1.0213352593112308, -1.9323774787830508, -0.05192529917893783, 0.7022899589065255, 1.4566213828403867, 0.24083582119087438, -0.5244081152122348, 0.059870396747392196, -0.9628425702131598}, {1.0785463725259943, 0.8139920173813995, -1.332111195017525, -0.5710193875339027, 0.6534118577615025, 1.007903042804005, -0.040116626630596716, 0.017382762576442785, 0.7487469793384693, -0.38171133746303587}, {0.6968673602496906, -0.8467822283697468, -0.9009513246687768, 0.7279633226577991, -0.9189795662972067, -0.7071577205801451, -0.7953769280025946, 0.5287082521732536, 1.2980004237159068, 0.9950105309828121}}
{{1.547714951411442, -0.8971169041619422, 1.7308327477131886, 1.0670844002759377, 0.6917748581377094, -0.5086369835195783, 0.9580694494529467, 1.041394989786383, -0.8344224746097231, 1.6861188132452591}}
