{{2.599310083725757, 0.2757356425872554, 2.832238567921719, -2.1682339076637094}, {0.25873837592283366, -1.579704737477254, 1.557280041782195, 0.48912835088640294}, {0.6608775218294123, -0.8725949344332066, -0.5640268000321911, 0.16155992212101777}, {-0.2635939845570936, -1.75875999724704, -1.2036256094884292, 1.1317537608221881}}
{{1.3789832807730642, -0.7155931184501525, 1.259272128648763, -2.615165730482105}, {-0.8050849843280332, -1.7930451346884189, 1.362722049764756, -0.35130482367977633}, {0.7870632562888955, -0.143681089311829, 0.7596375724745292, -0.8885533011204712}, {0.8668481876603469, -0.13341168479584004, 1.0167978858337845, -0.5900905193157704}, {0.346643092860487, 1.869150358562151, 0.48115805546457424, -1.0868493446723089}, {-0.8359487630518929, 1.7393387406731127, -1.8403369140334749, -2.423510508590515}, {1.2450661903918676, -0.944844071541038, -1.7878688198822754, 1.9014459023302583}, {-2.012159126004077, -0.886980934350623, -1.8008487347201019, 0.4286561102328015}, {-0.17050030062805427, -0.15072558076774584, 2.3073006069556286, 0.18883854159345242}, {0.36583109048161866, 1.1371382607393028, 2.3067524740404366, 1.031998293370072}}
{{0.5364489149555356, -1.1316933742798976, 2.657820592736842, 1.321741924716111, 0.08010511645924076, -1.5029814095892764, 1.1147540121361095, -1.771907716489853, -2.2666389086261836, 1.6074453687098993}, {1.2984259410420074, 1.078331189562848, 0.7920372416030108, -0.022175308065486607, -1.8533850013226578, 0.9060997772894508, -1.0603481004584019, -1.660186670926464, -2.182701903152532, -0.9915426902566353}, {-0.7225927019272813, 0.2785570060894208, 0.5994662701338649, -1.8770821493558882, 1.4024997571831137, 0.6846668435389831, 2.281456531496681, 1.6478655949155723, -0.3294221799381649, 1.848287218805302}, {0.860878744935653, -2.1170999069844143, -2.2867544095185215, 0.059934615214461445, -2.5583890185837017, 1.0786806430394522, 0.6598845680791843, 1.4451005433709811, 1.7540936291345672, -1.3653370500362922}, {1.4534649594351445, 1.5200019059382885, -2.652146244021358, 1.117761849475969, 0.034185570872443144, 2.3997899198745696, 1.1448526154633263, -0.52099198915758, 0.3304161530948839, 1.1493925977924584}, {0.12022094867377553, -0.5667649931541499, -1.7046972185980769, -0.7425400962667137, 0.5443200727873305, -0.1553269532024925, 1.274624359467189, 0.8752012534786271, -1.2323478651301678, 1.190153502459871}, {0.6861347718761053, 1.7739366384562354, -2.821754472014902, -0.9069693031127037, 1.7461090885388204, 0.7566272018085938, 0.27087833406086126, 0.049309328649634734, -1.2972331502404342, 0.045333588546990974}, {1.4884766566330039, 0.10828560491148717, 1.027300180045974, -2.366660474395352, 0.3714255243281793, -1.568831362223861, -0.51894769096457, 0.4717338285383599, -0.34949078708778136, 2.1570377812982366}, {1.4859792019498212, 2.630713088279225, -0.4246376770810635, -0.4627203556146595, -1.5856208614375213, -1.1312786953449412, -1.5265378051143257, -1.002947505969249, -0.5931334552244036, 0.6810932401477539}, {-1.8938675070190527, 1.6858881990182635, -1.0854159022432883, 0.5928214638520812, 1.2871008789551155, -1.9512751298609414, 2.0029210417790546, 0.5648559861296762, 0.9456654887332563, -0.8647705021705965}}
{{1.4139575580824042, -1.2758963297742985, -0.258093910860555, 3.1696999656167897, 0.1448930167179064, -0.2836582682997405, -0.3392280649815894, -2.6828010422488964, 1.0642274519226556, 0.7589090996200052}, {-0.7787147990607461, -0.08015173003393963, 2.0612980273982737, 1.016784199281258, -1.3142638067225034, 1.578879412328018, -1.6558430224276577, -1.3052840585008552, -0.9033051375611383, 0.35335533847060085}, {1.6373256581863784, 1.2291345269478855, -1.5193621557990746, 2.181570210127427, 1.8002279960127487, 1.3022324699901247, 0.6154779399904189, -2.551943586093846, -0.4458616347841532, -0.6143800211900408}, {1.6261476185615846, 0.8631458254347324, 1.4003487797858125, 1.749341068864882, 0.7900777674574415, 2.147832691448391, 1.1537430759561897, -0.9725696243270012, 1.7158924531659765, 0.40009972815806927}, {-1.1928428596373637, -0.2861730292429254, -0.8912277352755467, -0.47111506012490934, -0.3452859990221704, 1.1253094067232405, -1.0169742892818627, 1.4660495400857458, -0.025080360122366606, -1.173193360258113}, {-0.6483960105865487, 0.2679482646551867, -2.5476590236477525, 1.6434660158123546, -1.5521301163872057, -0.4534390525252632, 0.30592661532855847, -1.6302522275546165, 0.24272734769964788, 0.14605645410379509}, {0.6128255323912379, -2.22967829311514, 1.8307000592161318, -0.255127362141107, 2.671286958279783, -1.4648507342137416, 0.832184681725048, -0.9272997223738626, 1.7169564147705332, -1.2869286446378054}, {2.207398393749034, 0.8671611774002945, 1.4330176625120434, 1.6503898977731488, 1.273355956710013, -1.2366298383638568, 1.9627894853497305, 1.60450104214212, -0.7821125668389141, 1.7618774953562855}, {0.019103429166290778, -1.5863692568493755, 1.939261106918356, -1.2559490998167466, -0.527959944510697, 0.9367951933748986, -0.5000069771130691, -1.877939636800412, -0.20238920492968965, 0.31507027490656436}, {1.3839184015230885, -0.604306963707012, -2.265420568593602, -1.3082867818714563, 0.888597808218665, 2.4372455737892826, -2.0935596033335564, 0.30936547178196094, 1.7149332954506606, 1.823750711266487}}
{{-1.872003054722359, 1.4239611499540135, 0.8197539256566468, 1.4086994649519182, 0.5860943934852112, 0.026027455083157826, -2.024097565381858, 1.1067582292602745, 0.8544807486971621, 0.4536598125227811}}
