{{0.21827444647292932, 0.7781400020323115, -0.5020202306908688, -0.7546502528264454}, {1.4252145579106128, 2.147083136611604, 1.1660667403105593, -1.5389486781643198}, {-1.026147420136836, -1.0612022629971727, -0.39580480010815955, 0.8133261032701657}, {1.376389409417052, 0.08257078177498853, 0.9032552849533295, 1.5295017691377657}}
{{-0.35730313845660455, 0.12658294993048924, -1.7207923629559314, 0.5768719756979264}, {0.35110122406834654, 0.5047163054638157, 0.6446324789041684, -1.4864540189188982}, {-1.334077282425262, 0.4107989612580111, 0.2889511277346082, 2.1396542690670666}, {0.043450545729722956, -0.2735362544358162, -0.16478209314461606, -1.6174546312733078}, {-0.39019870386214617, -0.08203114206017334, 0.2149825633586943, -0.9553790928919632}, {-0.9371492838201168, -0.4126791239884099, -1.478057844803236, 0.8497482453719072}, {-0.5805342621785332, 0.3443347876418096, 0.5444377348689702, -0.016873756801520368}, {0.5945634246291733, 0.8813080467693819, -1.3059792505757728, 1.0167922252226043}, {1.615185321605972, 0.37307427859860187, -1.9369399455611558, -1.4917424355470632}, {-0.6058705214321316, -1.9895922021164436, 2.37536752762398, 1.124961691402039}}
{{-1.3690938297508812, -0.12827432188498694, -1.7742073155284124, 1.4737467041062748, 0.005146563370210034, 0.05562279628606001, 1.4905057339068644, 2.4507959164321367, -0.652360870434205, -0.4521556680041753}, {-0.7060227700151585, 1.6212407378356826, -1.8826040910468556, -1.3254683903132252, -0.9577347597437731, -0.22062204821679726, 0.8722699929961166, 0.5071620055141675, 1.685722387419001, 1.64563963265641}, {-0.6528777815993965, -1.0786535786589577, -1.7941260587589931, -0.6279535064011328, 0.08672133440239091, 0.12677406888186793, -1.443357405715711, 0.3200262183443555, 0.892844866784875, -1.304447723560707}, {1.6789622274874163, 0.2645018330719935, -0.4712094095308571, -0.3770454667764087, -0.8773006253190956, -0.30270537061388114, 0.09391433187571574, 0.20378070513934127, -0.5372687246678518, -1.7150060347055578}, {-0.49584492361123067, -0.5762450244832686, 0.9564046409033968, 1.7512847170946175, -0.5653439163634186, 0.7692894517892774, -0.7471337936738529, 1.199128011845541, 1.331364211087815, 0.7451128290125091}, {-0.03531371969568002, 0.39119234609094145, 1.8158590351677235, -2.086192522791676, -0.9807944211691295, 0.5628494007058475, 1.1327048809852358, -2.123175546646628, 1.1299893416435096, -1.2230979051430713}, {0.2546054261935881, -0.8733329232510973, 1.5834583228479207, -0.5983860778673884, -1.7134399316899138, 0.1151198876809443, 0.28614406285023974, -0.23365357442253576, -0.01611380133659756, 1.2749198024559512}, {0.22491235208046007, -1.0462771444370347, -0.7374424092384348, 0.6273283837858332, 1.2316049768995532, 0.19618513831710305, 1.56382611817076, -1.9899125730199119, 0.4216092774268222, -0.47137290345199856}, {0.6633287077706924, -1.3011042341078225, 0.30350453221491847, 1.031412136899029, -0.013786893505581387, 2.4648465746327854, 1.2571269836223724, -0.057855277394838825, -1.7217476641964846, 0.1368000638852478}, {-1.327224995981585, 1.9064666859547028, 0.6780793434367611, 0.42906018422365266, -1.1355785114418575, -0.1302643702875489, -0.6290314752227697, -0.2586129441332692, 1.5157978942112504, -1.1992729574790353}}
{{1.0210260489041203, 1.8909263315819134, 1.4464895733902576, 0.8826547847273212, 1.2881051574387423, -0.9393884465520577, -2.397188430313289, 2.2065235463019013, 0.5165994139439347, -1.79314572989315}, {0.6851436185550526, 1.3799579570862224, 0.1962729679877882, 1.3128529912977913, -0.7074003858553577, -1.0238749808364704, -0.6375800231848479, -0.8709249962812671, 0.9736206449687772, -0.7974030586844842}, {0.06668087158238764, 0.32684497958026304, -0.08366475919674632, -0.45841294271506217, -1.1474051115612625, -0.8254081067045282, -0.7311728960597139, -0.5481535480695616, 1.928938201214545, -0.13235805655025357}, {0.902270443497222, 0.46196698186575624, -0.49434947223194836, -2.7515979408480282, 0.8171280698108625, 0.40322875104349354, -1.1898949073906269, -1.0092612685913025, 1.1515058755156327, -2.018938144415518}, {-1.6458096463469962, 1.088325583730768, -0.41484582508035717, -1.5837923810451926, 0.8301578226754591, -2.8157282415612412, 0.18080357366325328, -0.9387380991117362, -0.3619757372615776, 0.8112181910352487}, {2.338185400094389, 0.6248528135880276, 0.44801753476303297, 1.7527407133253354, -0.12519062443690865, 0.42613848586471836, 1.5967587763380822, -1.3330545566951595, -1.755021921292046, 0.731166152856096}, {0.23088241410335725, 0.20764127659360043, -1.216101620034189, -1.4681494532260868, 0.0006655807583871105, -1.1413478048314634, 0.07006974518443282, 0.7532778618842424, 1.0966214081177448, -1.4392883430806624}, {0.8729373602147026, 0.9325374208990236, 1.894169440504033, -1.585147794325319, 2.213302793672942, -0.18895260251912221, 0.33589367288105343, -1.6187113730232237, 0.7977732346161388, -0.5699815007937092}, {1.803791952220121, 0.3341593689127039, -0.5907883273494665, -0.6203954283239996, -0.10690517627144672, 2.3566511169193696, -0.30386786361768103, -2.056070414512088, -0.14036464612514793, -1.1161383440474255}, {-1.4438770818011464, -0.0021579437779650395, 0.47605773910886484, -0.646555597959479, -0.49431485751079995, -0.7460023870930399, -1.90393775870941, -0.40376209625821724, -1.2010801571218095, -0.3513238881189015}}
{{-0.8177703718102673, 0.7098793088605717, 0.21752152638191785, -1.4767954167186237, 1.0553808852950173, 0.023547545139063215, 1.3924895267374016, -1.3938545961705802, 0.21806640722560444, 0.17106137832277074}}
